{"fitness":1079.0,"weights_IH":[5.27895450592041,2.1793267726898195,2.9447271823883058,7.2780070304870609,-4.830617904663086,-6.650561809539795,5.188414573669434,3.0809519290924074,-1.853632926940918,-10.669342994689942,-0.37429070472717287,4.872757434844971,-6.470757484436035,3.157195568084717,-1.9420431852340699,11.848804473876954,0.11801481992006302,-12.567771911621094,1.4987198114395142,0.05625344067811966,-4.385611534118652,1.7956984043121338,4.040010929107666,0.14600972831249238,3.4165096282958986,-2.3248651027679445,4.782598972320557,-4.732483386993408,-0.23479658365249635,-2.3610575199127199,1.140909194946289,-1.7797847986221314,-4.130939960479736,2.427881956100464,-1.6680618524551392,-4.10651159286499,0.761702299118042,1.5883455276489258,1.2616891860961915,-0.9350191950798035],"weights_HO":[-0.4213438630104065,2.657399892807007,-1.1065635681152344,-4.67178201675415,-0.5272050499916077,1.4716976881027222,1.4534589052200318,0.37818238139152529],"bias_H":[1.1030946969985963,1.050392985343933,-3.6242711544036867,-0.29459187388420107,0.32614317536354067,-0.7230944037437439,-2.026319742202759,2.136422634124756],"bias_O":[-2.295266628265381]}